svm_type nu_svr
kernel_type rbf
gamma 0.5
nr_class 2
total_sv 50
rho -199.0
SV
-1.0 1:0.0 2:1.0 
-1.0 1:2.0 2:3.0 
-1.0 1:4.0 2:5.0 
-1.0 1:6.0 2:7.0 
-1.0 1:8.0 2:9.0 
-1.0 1:10.0 2:11.0 
-1.0 1:12.0 2:13.0 
-1.0 1:14.0 2:15.0 
-1.0 1:16.0 2:17.0 
-1.0 1:18.0 2:19.0 
-1.0 1:20.0 2:21.0 
-1.0 1:22.0 2:23.0 
-1.0 1:24.0 2:25.0 
-1.0 1:26.0 2:27.0 
-1.0 1:28.0 2:29.0 
-1.0 1:30.0 2:31.0 
-1.0 1:32.0 2:33.0 
-1.0 1:34.0 2:35.0 
-1.0 1:36.0 2:37.0 
-1.0 1:38.0 2:39.0 
-1.0 1:40.0 2:41.0 
-1.0 1:42.0 2:43.0 
-1.0 1:44.0 2:45.0 
-1.0 1:46.0 2:47.0 
-1.0 1:48.0 2:49.0 
1.0 1:150.0 2:151.0 
1.0 1:152.0 2:153.0 
1.0 1:154.0 2:155.0 
1.0 1:156.0 2:157.0 
1.0 1:158.0 2:159.0 
1.0 1:160.0 2:161.0 
1.0 1:162.0 2:163.0 
1.0 1:164.0 2:165.0 
1.0 1:166.0 2:167.0 
1.0 1:168.0 2:169.0 
1.0 1:170.0 2:171.0 
1.0 1:172.0 2:173.0 
1.0 1:174.0 2:175.0 
1.0 1:176.0 2:177.0 
1.0 1:178.0 2:179.0 
1.0 1:180.0 2:181.0 
1.0 1:182.0 2:183.0 
1.0 1:184.0 2:185.0 
1.0 1:186.0 2:187.0 
1.0 1:188.0 2:189.0 
1.0 1:190.0 2:191.0 
1.0 1:192.0 2:193.0 
1.0 1:194.0 2:195.0 
1.0 1:196.0 2:197.0 
1.0 1:198.0 2:199.0 
